digraph Tree {
node [shape=box, style="filled", color="black"] ;
0 [label="viewed <= 24.5\nentropy = 0.95\nsamples = 18618\nvalue = [11737, 6881]", fillcolor="#f4cbad"] ;
1 [label="viewed <= 8.5\nentropy = 0.594\nsamples = 13220\nvalue = [11320, 1900]", fillcolor="#e9965a"] ;
0 -> 1 [labeldistance=2.5, labelangle=45, headlabel="True"] ;
2 [label="viewed <= 1.5\nentropy = 0.364\nsamples = 9394\nvalue = [8740, 654]", fillcolor="#e78a48"] ;
1 -> 2 ;
3 [label="days <= 0.5\nentropy = 0.25\nsamples = 5432\nvalue = [5205, 227]", fillcolor="#e68642"] ;
2 -> 3 ;
4 [label="entropy = 0.252\nsamples = 5390\nvalue = [5163, 227]", fillcolor="#e68742"] ;
3 -> 4 ;
5 [label="entropy = 0.0\nsamples = 42\nvalue = [42, 0]", fillcolor="#e58139"] ;
3 -> 5 ;
6 [label="correct_ratio <= 0.875\nentropy = 0.493\nsamples = 3962\nvalue = [3535, 427]", fillcolor="#e89051"] ;
2 -> 6 ;
7 [label="entropy = 0.452\nsamples = 3437\nvalue = [3112, 325]", fillcolor="#e88e4e"] ;
6 -> 7 ;
8 [label="entropy = 0.71\nsamples = 525\nvalue = [423, 102]", fillcolor="#eb9f69"] ;
6 -> 8 ;
9 [label="correct_ratio <= 0.408\nentropy = 0.91\nsamples = 3826\nvalue = [2580, 1246]", fillcolor="#f2be99"] ;
1 -> 9 ;
10 [label="days <= 1.5\nentropy = 0.679\nsamples = 1131\nvalue = [928, 203]", fillcolor="#eb9d64"] ;
9 -> 10 ;
11 [label="entropy = 0.663\nsamples = 1113\nvalue = [921, 192]", fillcolor="#ea9b62"] ;
10 -> 11 ;
12 [label="entropy = 0.964\nsamples = 18\nvalue = [7, 11]", fillcolor="#b7dbf6"] ;
10 -> 12 ;
13 [label="correct <= 6.5\nentropy = 0.963\nsamples = 2695\nvalue = [1652, 1043]", fillcolor="#f5d1b6"] ;
9 -> 13 ;
14 [label="entropy = 0.954\nsamples = 2630\nvalue = [1644, 986]", fillcolor="#f5cdb0"] ;
13 -> 14 ;
15 [label="entropy = 0.538\nsamples = 65\nvalue = [8, 57]", fillcolor="#55abe9"] ;
13 -> 15 ;
16 [label="steps_tried <= 6.5\nentropy = 0.392\nsamples = 5398\nvalue = [417, 4981]", fillcolor="#4aa5e7"] ;
0 -> 16 [labeldistance=2.5, labelangle=-45, headlabel="False"] ;
17 [label="viewed <= 39.5\nentropy = 0.923\nsamples = 1190\nvalue = [402, 788]", fillcolor="#9ecff2"] ;
16 -> 17 ;
18 [label="steps_tried <= 4.5\nentropy = 1.0\nsamples = 660\nvalue = [324, 336]", fillcolor="#f8fcfe"] ;
17 -> 18 ;
19 [label="entropy = 0.986\nsamples = 501\nvalue = [285, 216]", fillcolor="#f9e0cf"] ;
18 -> 19 ;
20 [label="entropy = 0.804\nsamples = 159\nvalue = [39, 120]", fillcolor="#79bded"] ;
18 -> 20 ;
21 [label="viewed <= 85.5\nentropy = 0.603\nsamples = 530\nvalue = [78, 452]", fillcolor="#5baee9"] ;
17 -> 21 ;
22 [label="entropy = 0.71\nsamples = 402\nvalue = [78, 324]", fillcolor="#69b5eb"] ;
21 -> 22 ;
23 [label="entropy = 0.0\nsamples = 128\nvalue = [0, 128]", fillcolor="#399de5"] ;
21 -> 23 ;
24 [label="steps_tried <= 7.5\nentropy = 0.034\nsamples = 4208\nvalue = [15, 4193]", fillcolor="#3a9de5"] ;
16 -> 24 ;
25 [label="correct_ratio <= 0.608\nentropy = 0.254\nsamples = 282\nvalue = [12, 270]", fillcolor="#42a1e6"] ;
24 -> 25 ;
26 [label="entropy = 0.381\nsamples = 162\nvalue = [12, 150]", fillcolor="#49a5e7"] ;
25 -> 26 ;
27 [label="entropy = 0.0\nsamples = 120\nvalue = [0, 120]", fillcolor="#399de5"] ;
25 -> 27 ;
28 [label="correct <= 5.5\nentropy = 0.009\nsamples = 3926\nvalue = [3, 3923]", fillcolor="#399de5"] ;
24 -> 28 ;
29 [label="entropy = 0.544\nsamples = 8\nvalue = [1, 7]", fillcolor="#55abe9"] ;
28 -> 29 ;
30 [label="entropy = 0.006\nsamples = 3918\nvalue = [2, 3916]", fillcolor="#399de5"] ;
28 -> 30 ;
}